<?xml version="1.0"?>
<opencv_storage>
<stage11>
  <maxWeakCount>7</maxWeakCount>
  <stageThreshold>-1.0817688703536987e+00</stageThreshold>
  <weakClassifiers>
    <_>
      <internalNodes>
        0 -1 217320 -214448673 -795656099 -2147118077 -75431277
        -939286134 -1610547200 1612293919 2024508051</internalNodes>
      <leafValues>
        -7.1693736314773560e-01 6.0650128126144409e-01</leafValues></_>
    <_>
      <internalNodes>
        0 -1 232334 -1683292657 -775708347 -2130681845 1360741831
        -2147432313 -1056898552 -2113166701 -1163218198</internalNodes>
      <leafValues>
        -6.1908507347106934e-01 5.2231216430664062e-01</leafValues></_>
    <_>
      <internalNodes>
        0 -1 50565 -716836978 71676303 -1744792191 -661548793 2067323034
        1531154832 295930797 1878640857</internalNodes>
      <leafValues>
        -6.7752188444137573e-01 5.0904208421707153e-01</leafValues></_>
    <_>
      <internalNodes>
        0 -1 77105 -810106140 -1993695102 16451 1764101288 -2147448694
        -936992640 -2146926550 -136617018</internalNodes>
      <leafValues>
        -6.2009179592132568e-01 5.6111967563629150e-01</leafValues></_>
    <_>
      <internalNodes>
        0 -1 208189 1372836663 386089217 -1795095799 1174409479
        -1743781623 -1717501693 1309344640 -902163792</internalNodes>
      <leafValues>
        -7.8814882040023804e-01 3.8162434101104736e-01</leafValues></_>
    <_>
      <internalNodes>
        0 -1 208741 -96211520 -110563614 699676852 1476724768 -600258418
        -830436246 -1692213250 -481317469</internalNodes>
      <leafValues>
        -4.9392682313919067e-01 7.0683652162551880e-01</leafValues></_>
    <_>
      <internalNodes>
        0 -1 171398 186997211 940638209 134303751 286334993 4851422
        -99418112 565418 -684978165</internalNodes>
      <leafValues>
        -6.6379141807556152e-01 5.2286124229431152e-01</leafValues></_></weakClassifiers></stage11>
</opencv_storage>
