<?xml version="1.0"?>
<opencv_storage>
<stage4>
  <maxWeakCount>4</maxWeakCount>
  <stageThreshold>-3.4486851096153259e-01</stageThreshold>
  <weakClassifiers>
    <_>
      <internalNodes>
        0 -1 223575 -545 -262274 -517 -5 -1 -16777347 2147221471
        1610612735</internalNodes>
      <leafValues>
        -6.9739133119583130e-01 7.8146344423294067e-01</leafValues></_>
    <_>
      <internalNodes>
        0 -1 47968 -503260801 -235122107 1078198931 227328805
        -1072068453 -1876787198 -1063747025 1193759439</internalNodes>
      <leafValues>
        -8.0419570207595825e-01 6.1149257421493530e-01</leafValues></_>
    <_>
      <internalNodes>
        0 -1 180812 420942335 596734165 1476431707 529257527 286327275
        -803077704 199007 17008807</internalNodes>
      <leafValues>
        -8.1744360923767090e-01 4.8655453324317932e-01</leafValues></_>
    <_>
      <internalNodes>
        0 -1 75392 -1055523378 1503985865 2228700 1494319150 -1274922801
        -1188691967 537430922 1274778251</internalNodes>
      <leafValues>
        -6.7184567451477051e-01 6.7016398906707764e-01</leafValues></_></weakClassifiers></stage4>
</opencv_storage>
