<?xml version="1.0"?>
<opencv_storage>
<stage16>
  <maxWeakCount>7</maxWeakCount>
  <stageThreshold>-6.8263852596282959e-01</stageThreshold>
  <weakClassifiers>
    <_>
      <internalNodes>
        0 -1 221028 -250383913 1427186064 939655189 1244889093
        1896161339 -1461187951 142624851 1241963168</internalNodes>
      <leafValues>
        -7.0680630207061768e-01 5.5008208751678467e-01</leafValues></_>
    <_>
      <internalNodes>
        0 -1 175691 -587086629 -14286863 -8953857 -680402955 -857973025
        -1 -1862336553 -538387979</internalNodes>
      <leafValues>
        -4.4914767146110535e-01 6.6358649730682373e-01</leafValues></_>
    <_>
      <internalNodes>
        0 -1 55574 -204552982 -1962680127 1099154 1778519616 -2013052797
        -2146675839 1981827616 1968399087</internalNodes>
      <leafValues>
        -7.1147757768630981e-01 4.5396417379379272e-01</leafValues></_>
    <_>
      <internalNodes>
        0 -1 145175 -1336912611 -1300184831 -1736294233 1360592897
        -402640765 202015104 -2147417585 -878753785</internalNodes>
      <leafValues>
        -5.4122465848922729e-01 5.7679945230484009e-01</leafValues></_>
    <_>
      <internalNodes>
        0 -1 224553 352444847 -1290714659 -1073397605 270844160
        -1928806213 -1592713200 -2130460277 -1706034543</internalNodes>
      <leafValues>
        -5.8362954854965210e-01 5.5169308185577393e-01</leafValues></_>
    <_>
      <internalNodes>
        0 -1 235395 -1681932293 -1659668761 -272670945 -780665097
        -1073807526 -1210225667 1459574134 -1875447905</internalNodes>
      <leafValues>
        -5.1457065343856812e-01 6.0466974973678589e-01</leafValues></_>
    <_>
      <internalNodes>
        0 -1 195454 -733246767 -2028584822 -2146430299 -770240189
        -1336801126 -1866330112 176722143 1412276655</internalNodes>
      <leafValues>
        -5.7848840951919556e-01 5.4647344350814819e-01</leafValues></_></weakClassifiers></stage16>
</opencv_storage>
