<?xml version="1.0"?>
<opencv_storage>
<stage6>
  <maxWeakCount>4</maxWeakCount>
  <stageThreshold>-1.2090154886245728e+00</stageThreshold>
  <weakClassifiers>
    <_>
      <internalNodes>
        0 -1 226544 -14725633 -238968829 167323 2078085889 -2138971153
        -64765938 83993643 2132538059</internalNodes>
      <leafValues>
        -7.0649898052215576e-01 6.5627783536911011e-01</leafValues></_>
    <_>
      <internalNodes>
        0 -1 201820 -274548568 472909892 -1332681484 -733739398
        -582367008 1074268888 3244219 -1022391605</internalNodes>
      <leafValues>
        -5.4978245496749878e-01 7.0555943250656128e-01</leafValues></_>
    <_>
      <internalNodes>
        0 -1 129055 -780290808 969124096 491200793 291065369 -804200306
        -1962832744 -746532839 -1546661409</internalNodes>
      <leafValues>
        -6.7001295089721680e-01 5.9333539009094238e-01</leafValues></_>
    <_>
      <internalNodes>
        0 -1 158969 -1199025991 -715815917 587268376 -1313791583
        -1870327649 -1978957824 1611197421 -72151389</internalNodes>
      <leafValues>
        -6.4549797773361206e-01 5.9986466169357300e-01</leafValues></_></weakClassifiers></stage6>
</opencv_storage>
