<?xml version="1.0"?>
<opencv_storage>
<stage12>
  <maxWeakCount>7</maxWeakCount>
  <stageThreshold>-1.9356067180633545e+00</stageThreshold>
  <weakClassifiers>
    <_>
      <internalNodes>
        0 -1 181657 -1648370177 498594175 -1090519041 -1635909633
        -587203333 -1 -587276577 -590020619</internalNodes>
      <leafValues>
        -6.0469669103622437e-01 6.5105599164962769e-01</leafValues></_>
    <_>
      <internalNodes>
        0 -1 219701 -1050976291 -1325284863 713216201 -183377278
        1091785473 -2140831615 -1324935735 -217341433</internalNodes>
      <leafValues>
        -5.0992196798324585e-01 6.2099075317382812e-01</leafValues></_>
    <_>
      <internalNodes>
        0 -1 212099 -687146096 -1709138048 50399249 -1178865503
        -1811410281 730464256 -343413839 483126475</internalNodes>
      <leafValues>
        -5.9727394580841064e-01 5.2188217639923096e-01</leafValues></_>
    <_>
      <internalNodes>
        0 -1 192642 867385855 1007620167 352392095 1393131541 144839007
        -1512898557 1210173723 1235447830</internalNodes>
      <leafValues>
        -7.1954172849655151e-01 4.2808580398559570e-01</leafValues></_>
    <_>
      <internalNodes>
        0 -1 182817 -45230976 -2129624703 265488 495768378 -2145091409
        218120192 -662076671 1972224425</internalNodes>
      <leafValues>
        -7.4991375207901001e-01 4.1133910417556763e-01</leafValues></_>
    <_>
      <internalNodes>
        0 -1 137359 -1283073697 1275666512 1141047322 -419085791
        -1994149721 -1691645951 -1325315455 -2000328169</internalNodes>
      <leafValues>
        -6.4387357234954834e-01 4.9094679951667786e-01</leafValues></_>
    <_>
      <internalNodes>
        0 -1 208650 -765293400 -82378216 2145487068 1564190169
        -1425482584 491572892 -1077640180 -212098258</internalNodes>
      <leafValues>
        -5.2739053964614868e-01 6.7633885145187378e-01</leafValues></_></weakClassifiers></stage12>
</opencv_storage>
