<?xml version="1.0"?>
<opencv_storage>
<stage2>
  <maxWeakCount>4</maxWeakCount>
  <stageThreshold>-2.7779781818389893e-01</stageThreshold>
  <weakClassifiers>
    <_>
      <internalNodes>
        0 -1 173251 -101122561 -150077953 319027681 -648707259
        -2121731329 -33554477 -50530305 -722141699</internalNodes>
      <leafValues>
        -7.4444442987442017e-01 7.5660377740859985e-01</leafValues></_>
    <_>
      <internalNodes>
        0 -1 200820 -1827417633 1435598865 17862989 1171592077
        -1341454277 -1341519734 134220367 1191925915</internalNodes>
      <leafValues>
        -8.4129524230957031e-01 6.3969159126281738e-01</leafValues></_>
    <_>
      <internalNodes>
        0 -1 210868 -775203491 -183140347 8428975 -345960436 -1592603832
        -1417019381 -931026488 -927481205</internalNodes>
      <leafValues>
        -7.1066325902938843e-01 6.9591945409774780e-01</leafValues></_>
    <_>
      <internalNodes>
        0 -1 189309 -1069428505 -585563647 268439571 -268168671
        -2142730101 -1995374592 -930313746 -937394166</internalNodes>
      <leafValues>
        -8.1996971368789673e-01 6.1202239990234375e-01</leafValues></_></weakClassifiers></stage2>
</opencv_storage>
