<?xml version="1.0"?>
<opencv_storage>
<stage15>
  <maxWeakCount>7</maxWeakCount>
  <stageThreshold>-1.0323742628097534e+00</stageThreshold>
  <weakClassifiers>
    <_>
      <internalNodes>
        0 -1 220914 1595399167 299180609 -1795160749 1979711541
        408127384 -1129701245 1805264974 1243265936</internalNodes>
      <leafValues>
        -6.9682151079177856e-01 5.7514691352844238e-01</leafValues></_>
    <_>
      <internalNodes>
        0 -1 162937 -1727967013 2072335681 167845275 -149075451
        -1669283702 -385629755 -1068463989 -1921508784</internalNodes>
      <leafValues>
        -5.3335863351821899e-01 5.6587249040603638e-01</leafValues></_>
    <_>
      <internalNodes>
        0 -1 62637 -1010373938 -741285550 654345729 1834025481
        1218342458 419479801 1073762443 1870652047</internalNodes>
      <leafValues>
        -6.9289070367813110e-01 4.5404756069183350e-01</leafValues></_>
    <_>
      <internalNodes>
        0 -1 191988 -1019133929 190939136 -1291730853 1367448224
        -1742032889 -1845493725 -2105124661 -217494870</internalNodes>
      <leafValues>
        -5.9030437469482422e-01 5.0257760286331177e-01</leafValues></_>
    <_>
      <internalNodes>
        0 -1 191238 354514377 498155665 362086637 832405633 -1870495133
        -560846828 174080139 533708921</internalNodes>
      <leafValues>
        -6.8242925405502319e-01 4.5750215649604797e-01</leafValues></_>
    <_>
      <internalNodes>
        0 -1 192817 -1041296897 1401618947 -1878931051 -938344189
        -2138926317 -1282895861 -2012163192 -603391616</internalNodes>
      <leafValues>
        -6.6398972272872925e-01 4.3798846006393433e-01</leafValues></_>
    <_>
      <internalNodes>
        0 -1 201624 -664012640 -763681590 1962731772 1378106816
        -396458839 1918516914 1447443452 -116659942</internalNodes>
      <leafValues>
        -5.0462460517883301e-01 6.3854199647903442e-01</leafValues></_></weakClassifiers></stage15>
</opencv_storage>
