<?xml version="1.0"?>
<opencv_storage>
<stage3>
  <maxWeakCount>4</maxWeakCount>
  <stageThreshold>-3.1719303131103516e-01</stageThreshold>
  <weakClassifiers>
    <_>
      <internalNodes>
        0 -1 223684 1609653215 -212006887 -654045161 -82161505
        -1870498886 -91095040 1501736635 1515145871</internalNodes>
      <leafValues>
        -8.3333331346511841e-01 7.1428573131561279e-01</leafValues></_>
    <_>
      <internalNodes>
        0 -1 152107 -1051207489 -595214280 25285201 454136395
        -1933344546 -1609234432 -1961652789 532316715</internalNodes>
      <leafValues>
        -7.8557187318801880e-01 6.6385686397552490e-01</leafValues></_>
    <_>
      <internalNodes>
        0 -1 33596 273256770 2102988087 285284563 1024917511 -2004843779
        -1147010895 -1441774593 -1145319285</internalNodes>
      <leafValues>
        -6.8704468011856079e-01 7.3464554548263550e-01</leafValues></_>
    <_>
      <internalNodes>
        0 -1 197161 1531117983 1397817347 285213023 2128154923
        -1859941957 -786333688 -1283411782 1287936812</internalNodes>
      <leafValues>
        -8.5908216238021851e-01 5.6706660985946655e-01</leafValues></_></weakClassifiers></stage3>
</opencv_storage>
