<?xml version="1.0"?>
<opencv_storage>
<stage18>
  <maxWeakCount>8</maxWeakCount>
  <stageThreshold>-1.0638314485549927e+00</stageThreshold>
  <weakClassifiers>
    <_>
      <internalNodes>
        0 -1 220788 -234634817 -750780286 554240019 -1312571357
        -1602212704 -1824456672 -251559767 1489937306</internalNodes>
      <leafValues>
        -7.8205126523971558e-01 5.0000000000000000e-01</leafValues></_>
    <_>
      <internalNodes>
        0 -1 109168 -861124385 -1859976959 1073840139 -1054736249
        134758555 -1174077311 -1584755021 -1420914557</internalNodes>
      <leafValues>
        -5.4878157377243042e-01 5.1915413141250610e-01</leafValues></_>
    <_>
      <internalNodes>
        0 -1 84322 -1559805697 -2146561917 18939911 -855506878 136448159
        146800770 814317954 -1418477296</internalNodes>
      <leafValues>
        -6.2779206037521362e-01 4.7659632563591003e-01</leafValues></_>
    <_>
      <internalNodes>
        0 -1 224486 -1592531553 -1523580911 -1862201023 -662401004
        1897431216 -1878785920 1352192162 -1940958065</internalNodes>
      <leafValues>
        -5.8833736181259155e-01 5.2195841073989868e-01</leafValues></_>
    <_>
      <internalNodes>
        0 -1 179567 -1724817955 -346611535 -2121547564 -1089273717
        1099113158 -1950350204 -1440706317 -1716558647</internalNodes>
      <leafValues>
        -4.9762737751007080e-01 5.5150109529495239e-01</leafValues></_>
    <_>
      <internalNodes>
        0 -1 205179 -425626896 -806927879 -272094792 1630247918
        -1606710756 -1190337556 8130691 -348150914</internalNodes>
      <leafValues>
        -4.9723345041275024e-01 5.9198743104934692e-01</leafValues></_>
    <_>
      <internalNodes>
        0 -1 67181 1872800127 1660717806 -102861 -1368265034 -268474497
        -402706882 -134781878 -524812585</internalNodes>
      <leafValues>
        -4.3054619431495667e-01 6.4873552322387695e-01</leafValues></_>
    <_>
      <internalNodes>
        0 -1 174929 -301823940 -804061163 536873369 21135874 -2013224726
        -1025875966 -401743461 -1927945473</internalNodes>
      <leafValues>
        -5.2073091268539429e-01 5.7893091440200806e-01</leafValues></_></weakClassifiers></stage18>
</opencv_storage>
