<?xml version="1.0"?>
<opencv_storage>
<stage9>
  <maxWeakCount>6</maxWeakCount>
  <stageThreshold>-1.2646086215972900e+00</stageThreshold>
  <weakClassifiers>
    <_>
      <internalNodes>
        0 -1 193803 -1324099305 -1039859709 67665934 1343504777
        545293057 536936595 -1912329982 -91574088</internalNodes>
      <leafValues>
        -6.7320263385772705e-01 6.2138473987579346e-01</leafValues></_>
    <_>
      <internalNodes>
        0 -1 173139 -183373025 -552533999 1089573 928076117 671221274
        -1681260310 524303 -1827569643</internalNodes>
      <leafValues>
        -6.1600798368453979e-01 6.0489183664321899e-01</leafValues></_>
    <_>
      <internalNodes>
        0 -1 60023 -762860804 -433454912 -1073544251 -801831798
        536872975 -659995502 -394129195 -638631772</internalNodes>
      <leafValues>
        -6.6332530975341797e-01 5.2159196138381958e-01</leafValues></_>
    <_>
      <internalNodes>
        0 -1 208741 -83710144 -647467792 1035335840 478480416
        -1657673588 75500776 1512078778 -1823865702</internalNodes>
      <leafValues>
        -5.5492717027664185e-01 6.4667093753814697e-01</leafValues></_>
    <_>
      <internalNodes>
        0 -1 205361 -618141558 -572517376 1716302577 -1147983302
        507857972 151831605 -2130653038 -99679573</internalNodes>
      <leafValues>
        -4.9518564343452454e-01 7.1531045436859131e-01</leafValues></_>
    <_>
      <internalNodes>
        0 -1 159749 855733175 826573233 289526539 1036320943 4432291
        717815963 -1589639025 -477838716</internalNodes>
      <leafValues>
        -6.6777694225311279e-01 5.5090606212615967e-01</leafValues></_></weakClassifiers></stage9>
</opencv_storage>
